digraph Tree {
node [shape=box, style="filled, rounded", color="black", fontname="helvetica"] ;
edge [fontname="helvetica"] ;
0 [label=<log_loudness &le; 1.345<br/>gini = 0.748<br/>samples = 237<br/>value = [110, 91, 91, 91]<br/>class = Ambient>, fillcolor="#fdf7f2"] ;
1 [label=<log_loudness &le; 0.542<br/>gini = 0.506<br/>samples = 114<br/>value = [106, 0, 3, 80]<br/>class = Ambient>, fillcolor="#f9e1d0"] ;
0 -> 1 [labeldistance=2.5, labelangle=45, headlabel="True"] ;
2 [label=<gini = 0.176<br/>samples = 38<br/>value = [65, 0, 0, 7]<br/>class = Ambient>, fillcolor="#e88f4e"] ;
1 -> 2 ;
3 [label=<gini = 0.487<br/>samples = 76<br/>value = [41, 0, 3, 73]<br/>class = Jazz>, fillcolor="#eeacf4"] ;
1 -> 3 ;
4 [label=<energy &le; 0.771<br/>gini = 0.571<br/>samples = 123<br/>value = [4, 91, 88, 11]<br/>class = EDM>, fillcolor="#fafef9"] ;
0 -> 4 [labeldistance=2.5, labelangle=-45, headlabel="False"] ;
5 [label=<gini = 0.561<br/>samples = 88<br/>value = [4, 47, 83, 11]<br/>class = Hip Hop>, fillcolor="#b6dbf5"] ;
4 -> 5 ;
6 [label=<gini = 0.183<br/>samples = 35<br/>value = [0, 44, 5, 0]<br/>class = EDM>, fillcolor="#5ce850"] ;
4 -> 6 ;
}
